-31.728816442720596
90.26184045304002
86.63065244821125
-15.410168478262417
-15.83838910843578
39.36897492894242
-32.46084715244417
3.0200769086189228
-27.915602563374822
-39.9787940890507
-49.68499472511683
-59.22216093669497
-61.89308312419179
-53.08522109688099
-27.403440637440898
12.885498179332098
49.60282949528779
101.43148456999383
44.215458536757225
-6.265618937472667
-7.892432788940581
59.32762126828252
127.0
47.45907385807376
47.95126166969052
-8.924438121655639
-39.516156123290884
18.27851233942987
-0.48635427799459885
46.58173353661439
40.66949657778294
-17.684875520209587
-67.82109042102724
-51.08659907395554
-38.97524292804187
-58.07306089339829
32.119269955764885
31.50858218916516
57.47640375930912
44.2583232048939
5.006480106575646
70.55074049751207
56.964392116096846
72.18838967623374
45.482842002996605
-21.990958146970584
27.61708026029572
26.989118517251455
31.498815290967134
75.24620227121169
46.6269223542775
-29.007332675758676
16.59887410593609
52.759376424626176
16.196875046734757
-17.706109136631653
-0.6331928741203673
20.06684841352156
76.5092609336688
41.984618084836654
-39.30663415728907
91.47804207969433
77.33945985216425
49.457592477493804
23.57728781305754
20.864337702432014
30.528570012730366
-5.7199727051188445
-1.3262908682050631
8.114314269241147
9.889865368058048
2.99708460652934
35.5700630659314
116.44662543329234
115.42505835406592
68.53841279605572
7.922407490245971
-6.793980312864619
-30.489446154176782
25.012234454142014
-49.44673787235841
91.39466801992718
94.39349225081718
-0.48728554190409257
15.273560233371809
35.80895300820714
-7.079526112094413
-68.85116748075966
2.7134403210343625
36.673206591968956
-14.36300108450152
-34.127845539550414
-14.406084378745124
42.73632081285258
71.62417039282583
17.8086682482621
56.801469959801395
-58.055586964661174
-67.97687264285231
-18.825278336522953
28.353805111153193
46.97919485361466
7.631454255043566
30.070900580256573
8.11562950321593
6.926374528269457
-34.472236818804134
-58.05174701708318
8.956219196216301
-13.581458778446056
-5.195091188766444
12.872048335185127
26.18024676286909
30.263349330504347
30.655807149751556
23.11134773318096
54.093654516898866
-34.024702776352555
-83.36724261658105
-15.880086908898448
50.017170224317304
53.236950181714676
3.3257283951338064
44.891674180886895
5.749137691029257
-75.53483732865323
-15.425578554272576
-7.701704354678437
29.807174489985584
25.59290118382976
62.9312011716164
27.858067634346668
-0.6342183765197645
-66.97383587958355
37.58242749559216
82.64224136648377
24.2130965993117
-40.16115586107
-52.678729023955455
-40.51707545027205
23.565401580145643
72.3404679568464
39.36094591627242
31.11320794368194
6.806529400540009
-19.88172285623675
-40.54519384530308
38.072318072220824
-16.446023396511368
67.42184008856064
114.87433543348816
98.13872295378764
-14.007090559871198
-82.34605093775102
-30.792912293490094
69.51935578458487
-21.17982713376892
-82.33318741257933
-23.55007335086703
-33.24870757575662
-25.042692837416503
24.918837800647044
-31.301134741559
15.126622251511515
-58.05833861052297
-5.661682413558621
33.63729996012957
62.4382262455501
-9.86714785776752
65.71338331313645
58.201099339499315
73.40467821131844
-14.504084358602352
-20.14746458320795
-44.29204826689489
-46.382950011103944
-3.645820464324058
1.9302134626705767
-70.69741221793542
-39.007894778690314
-72.9256024745834
29.095276191439154
-19.25611145909048
-5.689795383763337
-26.87133381677354
-27.37768063930136
-27.36116219824131
23.428363539154354
25.867290039112795
60.17251493578178
6.660963418446609
4.515857928300146
-60.005412294979955
-72.98518783303669
-48.90686532230919
-97.48355904871988
-52.16294281106683
-53.49662447357741
-34.01833455696928
-48.25879685173051
-79.03339696589799
14.861993214195502
-25.9337347698872
-23.746378543339443
-10.045673967856649
-32.017988708300095
-33.624510599897775
-20.999242621110238
-22.2227293755455
35.32536580720837
16.16446116510353
12.552321731797756
6.930403605327016
15.003979386028456
-79.53571551081922
-93.04754595067581
-79.76565792016547
-86.39989410062263
-28.7078693958076
-44.927130902572664
-40.846904858032154
-23.274489655267868
-0.23889778467634518
-33.169473165712645
39.98136049287033
-17.655863865830398
21.382278014450023
10.715835908137976
-5.730331009621754
17.206804824482532
59.09208923512734
27.646956349608967
59.798950552355706
44.94630221467024
43.610286588090354
-16.52508153180907
-64.03793649393153
-0.2569531065251155
-19.955747067875198
-45.97263742037918
9.411676333605268
36.81178858102693
68.17120261979133
-10.553514727058861
29.051771470684592
-30.331504840382838
1.996896300800625
-31.28587199870014
-10.816700936290339
-11.843313581595293
4.7144462132705875
-32.63380923474784
-6.978597552631468
49.48123400530047
21.54769545405994
-15.625769332512064
-50.63908174074287
0.24022478510432774
15.232608839618232
-4.084413419621309
-4.821168123272542
36.210663545700164
61.634329326880994
-36.92447495416633
-2.2371471189181
-55.27093057601211
-70.72374804292453
-62.068691788445385
-100.96251128675569
-94.86049719090546
-92.42667575049836
-45.65194923617261
-45.97260824674406
8.76384846408145
61.00766066873808
-32.90413604624228
4.363397732645771
12.82421322088617
-1.6483696551791478
18.46180050524361
-7.152936982600858
52.62146019170671
72.2791474808757
-35.86248215905987
-64.45830861217634
-36.83870931665809
-10.579502875953006
-58.74941403948532
-9.27742434784835
-71.55900186420675
-57.359039692413766
-13.133967437572466
-15.479369019285135
19.93055176392131
2.325286210806644
9.258644450625159
-7.016306386621798
-12.518388552370109
17.300929219510692
16.29809521267843
37.84783083193796
54.587531452150756
55.63182905476654
-6.900640882023072
-39.98467959022741
-36.78091569018558
15.136008456550835
22.671751928817354
1.908848577998314
-20.71525387943022
-3.6266872572180993
29.78233261073778
8.696247585731005
-18.39771820319992
-28.580188799952683
1.5009868083910096
-40.179667940548946
33.87813571726469
43.048908373778666
14.906590246536553
31.259828479591064
58.16327406693602
63.04307208524338
-13.932345104273255
-42.64994317064486
4.83865230447737
-9.403996166774576
-42.95117781265051
-26.185065756486647
9.369622453741446
-20.281316352194995
-12.243656844197181
-34.13558825787507
-27.75597660766846
-20.955031376858514
-23.788956028970617
27.137510783564707
61.91820322988598
45.769564645111686
-0.0006920198076782375
31.10834928500699
100.89627776214614
62.58519111172595
70.14418582216388
1.6978215791740845
16.235408060147574
-40.256796794436475
-23.21307739454338
-56.09305604020412
0.5462956918397149
-52.56854852938319
-69.53865658329772
-21.849681868208634
-79.14135965685117
-5.180157138559935
-46.55059739177568
32.18194158615754
52.62554143882323
23.919494707150374
-46.79117725616368
32.8648774674428
84.12682208231331
82.00656918691281
68.31800440798995
12.578689362025255
15.707857807701794
29.16393618516764
23.082084280591623
7.371063144089155
10.371963339471938
-37.48194344345314
-20.632366507917506
27.723652546227775
4.33833630629782
45.99795402881946
42.8808931353013
80.57393059639324
38.65893598143179
45.32072859206155
-31.584146980200313
-40.51108008399031
-59.701067623410424
-49.45855122053426
-31.334185476246745
-88.90229654898954
-52.24597272330272
-2.557823130400184
12.540646178496916
24.36492178296864
46.46548047854985
-22.510144360274257
-1.4617041454774047
38.91034923554895
109.06056640873385
58.60024761873435
121.71168826384468
102.82261216914483
54.12601111982478
1.5291360647567802
-19.166318848246295
